digraph Tree {
node [shape=box] ;
0 [label="betweenness_centrality <= 0.001\ngini = 0.4998\nsamples = 90\nvalue = [46, 44]"] ;
1 [label="GO:0042981 <= 0.5\ngini = 0.32\nsamples = 50\nvalue = [40, 10]"] ;
0 -> 1 [labeldistance=2.5, labelangle=45, headlabel="True"] ;
2 [label="GO:0000159 <= 0.5\ngini = 0.2535\nsamples = 47\nvalue = [40, 7]"] ;
1 -> 2 ;
3 [label="GO:0005856 <= 0.5\ngini = 0.1653\nsamples = 44\nvalue = [40, 4]"] ;
2 -> 3 ;
4 [label="GO:0006284 <= 0.5\ngini = 0.0907\nsamples = 42\nvalue = [40, 2]"] ;
3 -> 4 ;
5 [label="GO:0048568 <= 0.5\ngini = 0.0476\nsamples = 41\nvalue = [40, 1]"] ;
4 -> 5 ;
6 [label="gini = 0.0\nsamples = 40\nvalue = [40, 0]"] ;
5 -> 6 ;
7 [label="gini = 0.0\nsamples = 1\nvalue = [0, 1]"] ;
5 -> 7 ;
8 [label="gini = 0.0\nsamples = 1\nvalue = [0, 1]"] ;
4 -> 8 ;
9 [label="gini = 0.0\nsamples = 2\nvalue = [0, 2]"] ;
3 -> 9 ;
10 [label="gini = 0.0\nsamples = 3\nvalue = [0, 3]"] ;
2 -> 10 ;
11 [label="gini = 0.0\nsamples = 3\nvalue = [0, 3]"] ;
1 -> 11 ;
12 [label="GO:0072562 <= 0.5\ngini = 0.255\nsamples = 40\nvalue = [6, 34]"] ;
0 -> 12 [labeldistance=2.5, labelangle=-45, headlabel="False"] ;
13 [label="GO:0016887 <= 0.5\ngini = 0.1884\nsamples = 38\nvalue = [4, 34]"] ;
12 -> 13 ;
14 [label="GO:0002576 <= 0.5\ngini = 0.1049\nsamples = 36\nvalue = [2, 34]"] ;
13 -> 14 ;
15 [label="GO:0032585 <= 0.5\ngini = 0.0555\nsamples = 35\nvalue = [1, 34]"] ;
14 -> 15 ;
16 [label="gini = 0.0\nsamples = 34\nvalue = [0, 34]"] ;
15 -> 16 ;
17 [label="gini = 0.0\nsamples = 1\nvalue = [1, 0]"] ;
15 -> 17 ;
18 [label="gini = 0.0\nsamples = 1\nvalue = [1, 0]"] ;
14 -> 18 ;
19 [label="gini = 0.0\nsamples = 2\nvalue = [2, 0]"] ;
13 -> 19 ;
20 [label="gini = 0.0\nsamples = 2\nvalue = [2, 0]"] ;
12 -> 20 ;
}